36 200
_hyponym 0.333333 0.333333 -0.333333 -0.333333 0.333333 0.333333 -0.333333 -0.333333 -0.333333 0.333333 -0.333333 -0.333333 -0.333333 -0.333333 -0.333333 0.333333 -0.333333 0.333333 -0.333333 0.333333 0.333333 0.333333 0.333333 -0.333333 -0.333333 -0.333333 -0.333333 -0.333333 0.333333 0.333333 0.333333 0.333333 -0.333333 -0.333333 0.333333 0.333333 0.333333 0.333333 -0.333333 0.333333 -0.333333 -0.333333 -0.333333 0.333333 -0.333333 -0.333333 0.333333 0.333333 -0.333333 0.333333 -0.333333 0.333333 -0.333333 -0.333333 -0.333333 0.333333 -0.333333 0.333333 0.333333 0.333333 -0.333333 -0.333333 0.333333 0.333333 0.333333 -0.333333 -0.333333 0.333333 0.333333 -0.333333 -0.333333 -0.333333 0.333333 -0.333333 -0.333333 0.333333 -0.333333 -0.333333 0.333333 0.333333 0.333333 0.333333 -0.333333 0.333333 0.333333 0.333333 0.333333 -0.333333 0.333333 0.333333 0.333333 0.333333 -0.333333 -0.333333 0.333333 0.333333 0.333333 -0.333333 -0.333333 0.333333 0.333333 -0.333333 -0.333333 0.333333 -0.333333 0.333333 -0.333333 0.333333 -0.333333 -0.333333 0.333333 0.333333 0.333333 -0.333333 0.333333 -0.333333 0.333333 -0.333333 -0.333333 -0.333333 0.333333 0.333333 0.333333 -0.333333 0.333333 -0.333333 0.333333 0.333333 0.333333 0.333333 -0.333333 -0.333333 0.333333 -0.333333 -0.333333 0.333333 0.333333 0.333333 -0.333333 0.333333 0.333333 0.333333 0.333333 -0.333333 -0.333333 0.333333 -0.333333 -0.333333 0.333333 0.333333 -0.333333 0.333333 -0.333333 0.333333 -0.333333 0.333333 0.333333 0.333333 -0.333333 -0.333333 -0.333333 -0.333333 0.333333 -0.333333 0.333333 0.333333 0.333333 -0.333333 -0.333333 0.333333 0.333333 -0.333333 -0.333333 0.333333 -0.333333 0.333333 -0.333333 -0.333333 -0.333333 -0.333333 0.333333 -0.333333 0.333333 -0.333333 -0.333333 0.333333 -0.333333 0.333333 0.333333 0.333333 0.333333 0.333333 -0.333333 0.333333 -0.333333 -0.333333 0.333333 0.333333 0.333333 -0.333333
_hypernym -0.333333 0.333333 0.333333 -0.333333 0.333333 0.333333 -0.333333 -0.333333 -0.333333 -0.333333 0.333333 0.333333 0.333333 -0.333333 0.333333 -0.333333 0.333333 -0.333333 0.333333 -0.333333 0.333333 -0.333333 -0.333333 -0.333333 -0.333333 -0.333333 -0.333333 -0.333333 0.333333 0.333333 0.333333 -0.333333 -0.333333 -0.333333 0.333333 0.333333 0.333333 0.333333 -0.333333 0.333333 -0.333333 0.333333 -0.333333 0.333333 0.333333 -0.333333 0.333333 -0.333333 -0.333333 0.333333 -0.333333 0.333333 -0.333333 0.333333 -0.333333 -0.333333 -0.333333 0.333333 0.333333 0.333333 0.333333 -0.333333 0.333333 0.333333 0.333333 0.333333 -0.333333 0.333333 0.333333 0.333333 -0.333333 -0.333333 0.333333 0.333333 -0.333333 -0.333333 -0.333333 -0.333333 0.333333 -0.333333 0.333333 0.333333 0.333333 -0.333333 0.333333 -0.333333 -0.333333 0.333333 0.333333 -0.333333 -0.333333 0.333333 0.333333 0.333333 0.333333 0.333333 0.333333 -0.333333 0.333333 0.333333 -0.333333 -0.333333 0.333333 -0.333333 -0.333333 0.333333 -0.333333 0.333333 -0.333333 -0.333333 0.333333 -0.333333 0.333333 -0.333333 -0.333333 -0.333333 0.333333 0.333333 0.333333 -0.333333 0.333333 0.333333 0.333333 -0.333333 0.333333 -0.333333 0.333333 0.333333 -0.333333 -0.333333 -0.333333 0.333333 0.333333 -0.333333 -0.333333 0.333333 -0.333333 0.333333 0.333333 -0.333333 0.333333 0.333333 -0.333333 -0.333333 -0.333333 -0.333333 0.333333 -0.333333 0.333333 0.333333 0.333333 0.333333 0.333333 0.333333 -0.333333 0.333333 0.333333 -0.333333 -0.333333 -0.333333 -0.333333 0.333333 0.333333 0.333333 0.333333 -0.333333 -0.333333 -0.333333 -0.333333 0.333333 0.333333 -0.333333 -0.333333 0.333333 0.333333 0.333333 0.333333 -0.333333 -0.333333 0.333333 0.333333 0.333333 0.333333 -0.333333 0.333333 0.333333 0.333333 0.333333 0.333333 0.333333 -0.333333 -0.333333 -0.333333 0.333333 0.333333 -0.333333 0.333333 0.333333 -0.333333 -0.333333
_member_holonym -0.333333 0.333333 0.333333 0.333333 0.333333 0.333333 0.333333 -0.333333 -0.333333 -0.333333 0.333333 -0.333333 0.333333 -0.333333 -0.333333 -0.333333 -0.333333 0.333333 0.333333 0.333333 0.333333 0.333333 0.333333 -0.333333 0.333333 0.333333 0.333333 -0.333333 0.333333 -0.333333 0.333333 0.333333 -0.333333 0.333333 0.333333 0.333333 0.333333 0.333333 0.333333 0.333333 -0.333333 0.333333 0.333333 0.333333 0.333333 0.333333 0.333333 -0.333333 -0.333333 0.333333 -0.333333 -0.333333 -0.333333 0.333333 0.333333 0.333333 -0.333333 0.333333 0.333333 0.333333 -0.333333 -0.333333 0.333333 0.333333 0.333333 0.333333 -0.333333 -0.333333 -0.333333 0.333333 -0.333333 -0.333333 0.333333 -0.333333 0.333333 -0.333333 -0.333333 -0.333333 -0.333333 0.333333 0.333333 0.333333 -0.333333 -0.333333 0.333333 0.333333 0.333333 0.333333 -0.333333 -0.333333 0.333333 -0.333333 -0.333333 0.333333 -0.333333 0.333333 0.333333 -0.333333 -0.333333 0.333333 -0.333333 -0.333333 -0.333333 0.333333 -0.333333 0.333333 -0.333333 0.333333 -0.333333 -0.333333 0.333333 0.333333 0.333333 -0.333333 -0.333333 0.333333 0.333333 0.333333 -0.333333 -0.333333 0.333333 -0.333333 0.333333 -0.333333 0.333333 0.333333 0.333333 0.333333 -0.333333 0.333333 -0.333333 0.333333 0.333333 -0.333333 -0.333333 -0.333333 0.333333 0.333333 -0.333333 -0.333333 0.333333 -0.333333 0.333333 0.333333 0.333333 0.333333 0.333333 -0.333333 0.333333 0.333333 -0.333333 0.333333 0.333333 0.333333 -0.333333 0.333333 0.333333 0.333333 -0.333333 0.333333 -0.333333 -0.333333 -0.333333 -0.333333 0.333333 0.333333 0.333333 -0.333333 0.333333 -0.333333 0.333333 0.333333 -0.333333 0.333333 -0.333333 0.333333 -0.333333 0.333333 -0.333333 0.333333 0.333333 -0.333333 0.333333 -0.333333 -0.333333 -0.333333 0.333333 0.333333 0.333333 0.333333 -0.333333 -0.333333 -0.333333 0.333333 -0.333333 0.333333 0.333333 0.333333 0.333333 0.333333
_derivationally_related_form 0.333333 0.333333 0.333333 0.333333 0.333333 0.333333 -0.333333 -0.333333 -0.333333 0.333333 0.333333 -0.333333 0.333333 -0.333333 -0.333333 -0.333333 0.333333 -0.333333 -0.333333 0.333333 0.333333 0.333333 0.333333 -0.333333 0.333333 0.333333 0.333333 0.333333 0.333333 -0.333333 0.333333 0.333333 0.333333 -0.333333 0.333333 0.333333 0.333333 0.333333 -0.333333 0.333333 -0.333333 0.333333 -0.333333 0.333333 -0.333333 0.333333 0.333333 -0.333333 0.333333 0.333333 -0.333333 -0.333333 0.333333 0.333333 -0.333333 -0.333333 -0.333333 0.333333 0.333333 0.333333 0.333333 -0.333333 0.333333 -0.333333 0.333333 0.333333 -0.333333 0.333333 -0.333333 0.333333 -0.333333 -0.333333 0.333333 0.333333 0.333333 -0.333333 0.333333 -0.333333 0.333333 0.333333 0.333333 0.333333 -0.333333 0.333333 0.333333 0.333333 0.333333 0.333333 -0.333333 -0.333333 0.333333 -0.333333 0.333333 -0.333333 -0.333333 0.333333 0.333333 -0.333333 -0.333333 0.333333 -0.333333 -0.333333 -0.333333 -0.333333 0.333333 0.333333 -0.333333 0.333333 0.333333 -0.333333 0.333333 -0.333333 0.333333 -0.333333 -0.333333 0.333333 0.333333 -0.333333 0.333333 -0.333333 0.333333 0.333333 -0.333333 -0.333333 0.333333 -0.333333 0.333333 0.333333 0.333333 0.333333 -0.333333 0.333333 0.333333 -0.333333 0.333333 0.333333 0.333333 0.333333 -0.333333 0.333333 0.333333 0.333333 0.333333 0.333333 0.333333 0.333333 0.333333 -0.333333 0.333333 0.333333 -0.333333 0.333333 0.333333 0.333333 -0.333333 0.333333 0.333333 0.333333 -0.333333 0.333333 -0.333333 0.333333 0.333333 0.333333 0.333333 0.333333 0.333333 -0.333333 -0.333333 -0.333333 0.333333 0.333333 -0.333333 0.333333 -0.333333 0.333333 0.333333 -0.333333 -0.333333 0.333333 0.333333 0.333333 0.333333 -0.333333 -0.333333 -0.333333 -0.333333 -0.333333 0.333333 0.333333 -0.333333 0.333333 -0.333333 0.333333 0.333333 -0.333333 -0.333333 0.333333 -0.333333 -0.333333
_instance_hypernym -0.333333 -0.333333 -0.333333 -0.333333 0.333333 0.333333 0.333333 -0.333333 -0.333333 0.333333 -0.333333 -0.333333 0.333333 -0.333333 0.333333 0.333333 -0.333333 -0.333333 -0.333333 -0.333333 0.333333 -0.333333 0.333333 -0.333333 -0.333333 0.333333 0.333333 -0.333333 0.333333 -0.333333 0.333333 -0.333333 -0.333333 -0.333333 0.333333 0.333333 0.333333 0.333333 -0.333333 0.333333 -0.333333 0.333333 -0.333333 -0.333333 -0.333333 0.333333 0.333333 0.333333 -0.333333 -0.333333 -0.333333 0.333333 0.333333 -0.333333 -0.333333 -0.333333 -0.333333 0.333333 0.333333 0.333333 0.333333 -0.333333 0.333333 0.333333 0.333333 -0.333333 -0.333333 -0.333333 -0.333333 -0.333333 -0.333333 -0.333333 0.333333 -0.333333 -0.333333 0.333333 0.333333 -0.333333 -0.333333 0.333333 0.333333 0.333333 0.333333 -0.333333 0.333333 0.333333 -0.333333 0.333333 -0.333333 -0.333333 0.333333 0.333333 -0.333333 0.333333 0.333333 0.333333 -0.333333 0.333333 -0.333333 0.333333 0.333333 -0.333333 0.333333 -0.333333 -0.333333 -0.333333 -0.333333 0.333333 0.333333 -0.333333 0.333333 0.333333 0.333333 -0.333333 -0.333333 -0.333333 0.333333 -0.333333 -0.333333 -0.333333 0.333333 0.333333 -0.333333 -0.333333 0.333333 0.333333 0.333333 0.333333 -0.333333 -0.333333 -0.333333 0.333333 -0.333333 -0.333333 0.333333 -0.333333 -0.333333 0.333333 -0.333333 0.333333 0.333333 -0.333333 -0.333333 -0.333333 0.333333 0.333333 -0.333333 -0.333333 0.333333 0.333333 0.333333 0.333333 -0.333333 0.333333 -0.333333 -0.333333 0.333333 0.333333 0.333333 -0.333333 -0.333333 0.333333 -0.333333 -0.333333 0.333333 0.333333 -0.333333 -0.333333 -0.333333 -0.333333 0.333333 0.333333 -0.333333 0.333333 -0.333333 0.333333 -0.333333 -0.333333 -0.333333 -0.333333 0.333333 -0.333333 0.333333 -0.333333 0.333333 -0.333333 -0.333333 0.333333 0.333333 0.333333 0.333333 -0.333333 -0.333333 0.333333 0.333333 -0.333333 0.333333 0.333333 -0.333333 0.333333
_also_see -0.333333 -0.333333 -0.333333 0.333333 0.333333 0.333333 -0.333333 -0.333333 -0.333333 0.333333 0.333333 -0.333333 0.333333 -0.333333 0.333333 -0.333333 -0.333333 -0.333333 0.333333 0.333333 0.333333 -0.333333 -0.333333 -0.333333 0.333333 0.333333 0.333333 -0.333333 0.333333 -0.333333 0.333333 0.333333 -0.333333 0.333333 0.333333 0.333333 0.333333 0.333333 -0.333333 0.333333 -0.333333 0.333333 -0.333333 -0.333333 0.333333 -0.333333 0.333333 -0.333333 -0.333333 -0.333333 -0.333333 -0.333333 0.333333 -0.333333 -0.333333 -0.333333 -0.333333 0.333333 0.333333 0.333333 -0.333333 -0.333333 -0.333333 0.333333 0.333333 -0.333333 -0.333333 0.333333 -0.333333 -0.333333 -0.333333 -0.333333 0.333333 0.333333 0.333333 0.333333 -0.333333 -0.333333 -0.333333 0.333333 0.333333 0.333333 0.333333 0.333333 0.333333 -0.333333 -0.333333 0.333333 0.333333 0.333333 0.333333 -0.333333 0.333333 0.333333 0.333333 0.333333 0.333333 -0.333333 0.333333 -0.333333 -0.333333 0.333333 0.333333 0.333333 -0.333333 0.333333 -0.333333 0.333333 0.333333 -0.333333 0.333333 0.333333 0.333333 -0.333333 -0.333333 0.333333 0.333333 0.333333 0.333333 -0.333333 0.333333 0.333333 0.333333 0.333333 0.333333 -0.333333 0.333333 0.333333 -0.333333 0.333333 -0.333333 0.333333 -0.333333 0.333333 -0.333333 0.333333 -0.333333 0.333333 -0.333333 0.333333 0.333333 0.333333 0.333333 -0.333333 -0.333333 -0.333333 -0.333333 -0.333333 0.333333 -0.333333 0.333333 0.333333 0.333333 0.333333 -0.333333 0.333333 0.333333 -0.333333 -0.333333 -0.333333 -0.333333 -0.333333 -0.333333 -0.333333 0.333333 -0.333333 0.333333 -0.333333 0.333333 -0.333333 0.333333 0.333333 -0.333333 0.333333 -0.333333 0.333333 -0.333333 -0.333333 -0.333333 0.333333 0.333333 -0.333333 0.333333 -0.333333 0.333333 0.333333 0.333333 0.333333 0.333333 0.333333 -0.333333 -0.333333 -0.333333 0.333333 -0.333333 -0.333333 -0.333333 0.333333 -0.333333 -0.333333
_member_meronym -0.333333 0.333333 0.333333 -0.333333 0.333333 0.333333 -0.333333 -0.333333 -0.333333 0.333333 0.333333 -0.333333 0.333333 -0.333333 -0.333333 -0.333333 -0.333333 -0.333333 -0.333333 -0.333333 0.333333 0.333333 -0.333333 -0.333333 -0.333333 -0.333333 0.333333 -0.333333 0.333333 -0.333333 -0.333333 0.333333 -0.333333 0.333333 0.333333 0.333333 0.333333 0.333333 0.333333 0.333333 -0.333333 0.333333 -0.333333 -0.333333 -0.333333 -0.333333 0.333333 0.333333 0.333333 -0.333333 -0.333333 -0.333333 -0.333333 -0.333333 -0.333333 -0.333333 -0.333333 0.333333 0.333333 0.333333 -0.333333 -0.333333 0.333333 0.333333 0.333333 0.333333 -0.333333 -0.333333 0.333333 -0.333333 -0.333333 -0.333333 0.333333 -0.333333 0.333333 -0.333333 -0.333333 -0.333333 -0.333333 0.333333 0.333333 0.333333 -0.333333 0.333333 0.333333 0.333333 -0.333333 -0.333333 0.333333 0.333333 -0.333333 0.333333 0.333333 -0.333333 -0.333333 0.333333 0.333333 -0.333333 0.333333 0.333333 0.333333 0.333333 0.333333 0.333333 -0.333333 0.333333 -0.333333 0.333333 0.333333 -0.333333 0.333333 0.333333 -0.333333 -0.333333 0.333333 -0.333333 0.333333 -0.333333 -0.333333 -0.333333 0.333333 0.333333 -0.333333 -0.333333 0.333333 0.333333 0.333333 0.333333 0.333333 -0.333333 -0.333333 0.333333 0.333333 0.333333 0.333333 0.333333 0.333333 0.333333 -0.333333 0.333333 0.333333 0.333333 -0.333333 -0.333333 -0.333333 0.333333 0.333333 -0.333333 0.333333 0.333333 0.333333 0.333333 0.333333 0.333333 -0.333333 0.333333 0.333333 0.333333 -0.333333 -0.333333 -0.333333 -0.333333 -0.333333 0.333333 0.333333 -0.333333 0.333333 -0.333333 0.333333 -0.333333 0.333333 0.333333 0.333333 0.333333 0.333333 0.333333 -0.333333 0.333333 -0.333333 0.333333 0.333333 0.333333 0.333333 0.333333 -0.333333 0.333333 -0.333333 0.333333 0.333333 0.333333 -0.333333 0.333333 -0.333333 0.333333 0.333333 0.333333 -0.333333 0.333333 0.333333 -0.333333
_member_of_domain_topic -0.333333 -0.333333 0.333333 -0.333333 0.333333 0.333333 -0.333333 -0.333333 -0.333333 -0.333333 0.333333 0.333333 -0.333333 -0.333333 0.333333 -0.333333 -0.333333 0.333333 0.333333 0.333333 0.333333 0.333333 -0.333333 -0.333333 -0.333333 0.333333 0.333333 -0.333333 0.333333 -0.333333 0.333333 -0.333333 0.333333 -0.333333 0.333333 0.333333 0.333333 0.333333 -0.333333 0.333333 -0.333333 0.333333 -0.333333 0.333333 -0.333333 -0.333333 0.333333 0.333333 -0.333333 0.333333 -0.333333 -0.333333 0.333333 0.333333 -0.333333 0.333333 -0.333333 0.333333 0.333333 0.333333 -0.333333 -0.333333 -0.333333 0.333333 0.333333 0.333333 -0.333333 -0.333333 -0.333333 -0.333333 -0.333333 -0.333333 0.333333 -0.333333 -0.333333 0.333333 0.333333 -0.333333 0.333333 0.333333 0.333333 0.333333 0.333333 0.333333 0.333333 0.333333 -0.333333 -0.333333 -0.333333 0.333333 -0.333333 -0.333333 -0.333333 0.333333 -0.333333 0.333333 0.333333 -0.333333 0.333333 -0.333333 -0.333333 -0.333333 -0.333333 -0.333333 -0.333333 0.333333 -0.333333 0.333333 0.333333 -0.333333 0.333333 0.333333 0.333333 -0.333333 0.333333 0.333333 0.333333 0.333333 0.333333 -0.333333 0.333333 0.333333 -0.333333 0.333333 0.333333 0.333333 0.333333 0.333333 0.333333 -0.333333 -0.333333 0.333333 0.333333 -0.333333 -0.333333 0.333333 0.333333 0.333333 -0.333333 -0.333333 0.333333 0.333333 -0.333333 0.333333 0.333333 -0.333333 0.333333 -0.333333 0.333333 -0.333333 0.333333 0.333333 -0.333333 0.333333 -0.333333 -0.333333 0.333333 0.333333 -0.333333 0.333333 -0.333333 -0.333333 -0.333333 -0.333333 0.333333 0.333333 -0.333333 -0.333333 -0.333333 -0.333333 0.333333 0.333333 -0.333333 0.333333 0.333333 0.333333 0.333333 -0.333333 -0.333333 0.333333 0.333333 0.333333 0.333333 -0.333333 -0.333333 0.333333 0.333333 -0.333333 0.333333 0.333333 -0.333333 0.333333 -0.333333 0.333333 0.333333 -0.333333 0.333333 0.333333 0.333333 -0.333333
_part_of -0.333333 0.333333 0.333333 0.333333 0.333333 0.333333 0.333333 -0.333333 -0.333333 -0.333333 0.333333 0.333333 0.333333 -0.333333 0.333333 0.333333 -0.333333 -0.333333 -0.333333 -0.333333 0.333333 -0.333333 -0.333333 -0.333333 0.333333 0.333333 0.333333 -0.333333 0.333333 -0.333333 0.333333 0.333333 -0.333333 0.333333 0.333333 0.333333 0.333333 0.333333 -0.333333 0.333333 -0.333333 -0.333333 -0.333333 -0.333333 -0.333333 0.333333 0.333333 0.333333 -0.333333 -0.333333 -0.333333 0.333333 -0.333333 0.333333 -0.333333 -0.333333 -0.333333 0.333333 0.333333 0.333333 0.333333 -0.333333 -0.333333 0.333333 0.333333 -0.333333 -0.333333 -0.333333 -0.333333 -0.333333 -0.333333 -0.333333 0.333333 -0.333333 -0.333333 0.333333 -0.333333 -0.333333 0.333333 0.333333 0.333333 0.333333 0.333333 -0.333333 0.333333 0.333333 0.333333 0.333333 0.333333 -0.333333 -0.333333 0.333333 -0.333333 0.333333 -0.333333 0.333333 0.333333 -0.333333 0.333333 0.333333 -0.333333 0.333333 -0.333333 -0.333333 0.333333 -0.333333 -0.333333 0.333333 0.333333 0.333333 0.333333 -0.333333 -0.333333 -0.333333 0.333333 -0.333333 -0.333333 0.333333 0.333333 -0.333333 0.333333 0.333333 0.333333 -0.333333 0.333333 -0.333333 0.333333 0.333333 0.333333 0.333333 -0.333333 0.333333 0.333333 0.333333 -0.333333 -0.333333 -0.333333 0.333333 0.333333 0.333333 0.333333 0.333333 -0.333333 0.333333 -0.333333 0.333333 0.333333 -0.333333 0.333333 -0.333333 -0.333333 0.333333 -0.333333 0.333333 -0.333333 -0.333333 0.333333 0.333333 0.333333 0.333333 -0.333333 0.333333 -0.333333 0.333333 0.333333 -0.333333 0.333333 -0.333333 -0.333333 0.333333 0.333333 0.333333 -0.333333 0.333333 0.333333 0.333333 -0.333333 0.333333 -0.333333 -0.333333 0.333333 -0.333333 0.333333 0.333333 0.333333 -0.333333 0.333333 0.333333 0.333333 0.333333 -0.333333 0.333333 -0.333333 0.333333 0.333333 -0.333333 0.333333 0.333333 -0.333333 -0.333333
_instance_hyponym 0.333333 -0.333333 0.333333 -0.333333 0.333333 0.333333 -0.333333 -0.333333 -0.333333 -0.333333 -0.333333 0.333333 0.333333 -0.333333 -0.333333 0.333333 -0.333333 0.333333 -0.333333 0.333333 0.333333 -0.333333 0.333333 -0.333333 -0.333333 0.333333 -0.333333 -0.333333 0.333333 0.333333 -0.333333 0.333333 0.333333 0.333333 0.333333 0.333333 0.333333 0.333333 -0.333333 0.333333 -0.333333 0.333333 -0.333333 0.333333 0.333333 -0.333333 0.333333 -0.333333 -0.333333 -0.333333 -0.333333 0.333333 -0.333333 0.333333 -0.333333 -0.333333 -0.333333 0.333333 0.333333 0.333333 -0.333333 -0.333333 -0.333333 0.333333 0.333333 0.333333 -0.333333 0.333333 0.333333 -0.333333 -0.333333 -0.333333 0.333333 -0.333333 -0.333333 -0.333333 -0.333333 0.333333 0.333333 0.333333 0.333333 0.333333 0.333333 -0.333333 0.333333 0.333333 0.333333 0.333333 0.333333 -0.333333 0.333333 -0.333333 -0.333333 0.333333 -0.333333 0.333333 0.333333 0.333333 0.333333 -0.333333 -0.333333 -0.333333 -0.333333 0.333333 -0.333333 -0.333333 -0.333333 0.333333 -0.333333 -0.333333 0.333333 -0.333333 0.333333 -0.333333 -0.333333 -0.333333 -0.333333 0.333333 0.333333 -0.333333 0.333333 0.333333 0.333333 -0.333333 0.333333 -0.333333 0.333333 0.333333 -0.333333 -0.333333 -0.333333 -0.333333 -0.333333 -0.333333 0.333333 -0.333333 0.333333 0.333333 -0.333333 0.333333 0.333333 -0.333333 -0.333333 -0.333333 0.333333 -0.333333 0.333333 -0.333333 0.333333 -0.333333 0.333333 -0.333333 -0.333333 0.333333 -0.333333 0.333333 0.333333 0.333333 0.333333 0.333333 -0.333333 0.333333 0.333333 0.333333 0.333333 0.333333 -0.333333 -0.333333 0.333333 -0.333333 0.333333 -0.333333 0.333333 0.333333 -0.333333 0.333333 0.333333 -0.333333 -0.333333 -0.333333 -0.333333 0.333333 0.333333 0.333333 0.333333 0.333333 -0.333333 0.333333 0.333333 0.333333 -0.333333 -0.333333 -0.333333 0.333333 0.333333 0.333333 0.333333 0.333333 -0.333333 0.333333
_synset_domain_topic_of -0.333333 0.333333 -0.333333 0.333333 0.333333 0.333333 -0.333333 -0.333333 -0.333333 0.333333 0.333333 -0.333333 -0.333333 -0.333333 0.333333 0.333333 0.333333 0.333333 -0.333333 -0.333333 0.333333 -0.333333 -0.333333 -0.333333 0.333333 -0.333333 -0.333333 0.333333 0.333333 -0.333333 -0.333333 0.333333 -0.333333 -0.333333 0.333333 0.333333 0.333333 0.333333 -0.333333 0.333333 -0.333333 -0.333333 0.333333 0.333333 0.333333 -0.333333 0.333333 -0.333333 0.333333 0.333333 -0.333333 -0.333333 0.333333 0.333333 -0.333333 0.333333 -0.333333 0.333333 0.333333 0.333333 0.333333 -0.333333 0.333333 -0.333333 0.333333 0.333333 -0.333333 0.333333 0.333333 0.333333 -0.333333 -0.333333 0.333333 0.333333 -0.333333 -0.333333 0.333333 -0.333333 -0.333333 0.333333 0.333333 0.333333 -0.333333 -0.333333 0.333333 0.333333 0.333333 -0.333333 -0.333333 -0.333333 -0.333333 0.333333 -0.333333 -0.333333 -0.333333 0.333333 0.333333 -0.333333 -0.333333 -0.333333 -0.333333 -0.333333 -0.333333 -0.333333 0.333333 0.333333 -0.333333 0.333333 -0.333333 -0.333333 0.333333 0.333333 0.333333 -0.333333 0.333333 0.333333 0.333333 0.333333 -0.333333 -0.333333 0.333333 0.333333 -0.333333 -0.333333 0.333333 -0.333333 0.333333 0.333333 -0.333333 -0.333333 -0.333333 -0.333333 -0.333333 -0.333333 0.333333 -0.333333 0.333333 0.333333 0.333333 0.333333 0.333333 -0.333333 0.333333 -0.333333 0.333333 -0.333333 0.333333 -0.333333 0.333333 0.333333 -0.333333 -0.333333 -0.333333 0.333333 -0.333333 0.333333 0.333333 0.333333 -0.333333 0.333333 -0.333333 -0.333333 -0.333333 -0.333333 0.333333 -0.333333 0.333333 -0.333333 0.333333 -0.333333 0.333333 0.333333 -0.333333 0.333333 0.333333 0.333333 0.333333 -0.333333 -0.333333 -0.333333 0.333333 0.333333 0.333333 0.333333 -0.333333 0.333333 0.333333 0.333333 0.333333 0.333333 0.333333 0.333333 -0.333333 0.333333 0.333333 -0.333333 0.333333 0.333333 0.333333 -0.333333
_has_part -0.333333 0.333333 -0.333333 -0.333333 0.333333 0.333333 -0.333333 -0.333333 -0.333333 0.333333 -0.333333 -0.333333 -0.333333 -0.333333 0.333333 -0.333333 -0.333333 0.333333 -0.333333 0.333333 0.333333 -0.333333 0.333333 -0.333333 -0.333333 -0.333333 -0.333333 0.333333 0.333333 -0.333333 -0.333333 0.333333 0.333333 -0.333333 0.333333 0.333333 0.333333 0.333333 -0.333333 0.333333 -0.333333 0.333333 -0.333333 -0.333333 0.333333 0.333333 0.333333 -0.333333 -0.333333 -0.333333 -0.333333 0.333333 0.333333 -0.333333 0.333333 -0.333333 -0.333333 0.333333 0.333333 0.333333 0.333333 0.333333 -0.333333 0.333333 0.333333 -0.333333 -0.333333 0.333333 -0.333333 -0.333333 -0.333333 -0.333333 0.333333 -0.333333 -0.333333 0.333333 0.333333 -0.333333 -0.333333 -0.333333 0.333333 0.333333 0.333333 -0.333333 0.333333 0.333333 -0.333333 0.333333 -0.333333 -0.333333 0.333333 0.333333 0.333333 -0.333333 -0.333333 0.333333 0.333333 -0.333333 -0.333333 -0.333333 0.333333 -0.333333 0.333333 0.333333 -0.333333 -0.333333 -0.333333 0.333333 0.333333 -0.333333 0.333333 0.333333 0.333333 -0.333333 0.333333 0.333333 -0.333333 -0.333333 -0.333333 -0.333333 0.333333 -0.333333 0.333333 -0.333333 0.333333 -0.333333 0.333333 0.333333 0.333333 -0.333333 -0.333333 -0.333333 0.333333 0.333333 -0.333333 0.333333 -0.333333 0.333333 0.333333 0.333333 0.333333 -0.333333 0.333333 -0.333333 -0.333333 0.333333 0.333333 -0.333333 0.333333 0.333333 0.333333 0.333333 -0.333333 0.333333 -0.333333 0.333333 0.333333 0.333333 -0.333333 -0.333333 -0.333333 0.333333 -0.333333 -0.333333 0.333333 -0.333333 -0.333333 -0.333333 0.333333 -0.333333 0.333333 -0.333333 -0.333333 0.333333 0.333333 0.333333 -0.333333 0.333333 -0.333333 0.333333 -0.333333 0.333333 0.333333 0.333333 0.333333 0.333333 0.333333 0.333333 0.333333 0.333333 -0.333333 -0.333333 -0.333333 0.333333 -0.333333 0.333333 0.333333 0.333333 0.333333 0.333333
_member_of_domain_usage -0.333333 -0.333333 -0.333333 -0.333333 0.333333 0.333333 -0.333333 -0.333333 -0.333333 0.333333 -0.333333 -0.333333 0.333333 -0.333333 0.333333 0.333333 -0.333333 -0.333333 0.333333 -0.333333 0.333333 0.333333 0.333333 -0.333333 0.333333 -0.333333 0.333333 0.333333 0.333333 0.333333 -0.333333 0.333333 -0.333333 -0.333333 0.333333 0.333333 -0.333333 0.333333 -0.333333 0.333333 -0.333333 0.333333 -0.333333 -0.333333 0.333333 -0.333333 0.333333 -0.333333 -0.333333 -0.333333 -0.333333 0.333333 0.333333 0.333333 0.333333 -0.333333 -0.333333 0.333333 0.333333 0.333333 0.333333 0.333333 -0.333333 -0.333333 0.333333 0.333333 -0.333333 -0.333333 -0.333333 0.333333 -0.333333 -0.333333 0.333333 -0.333333 0.333333 -0.333333 0.333333 -0.333333 0.333333 0.333333 0.333333 0.333333 -0.333333 -0.333333 0.333333 -0.333333 0.333333 -0.333333 -0.333333 -0.333333 -0.333333 0.333333 0.333333 0.333333 0.333333 0.333333 0.333333 -0.333333 -0.333333 0.333333 -0.333333 -0.333333 0.333333 0.333333 -0.333333 0.333333 -0.333333 0.333333 -0.333333 -0.333333 0.333333 0.333333 0.333333 -0.333333 -0.333333 0.333333 0.333333 0.333333 -0.333333 -0.333333 0.333333 0.333333 -0.333333 -0.333333 0.333333 0.333333 0.333333 0.333333 0.333333 0.333333 -0.333333 -0.333333 0.333333 0.333333 -0.333333 0.333333 0.333333 0.333333 0.333333 0.333333 0.333333 0.333333 0.333333 0.333333 -0.333333 -0.333333 0.333333 -0.333333 -0.333333 0.333333 -0.333333 0.333333 -0.333333 0.333333 -0.333333 -0.333333 0.333333 -0.333333 -0.333333 0.333333 -0.333333 0.333333 -0.333333 -0.333333 0.333333 -0.333333 0.333333 -0.333333 -0.333333 -0.333333 0.333333 -0.333333 0.333333 0.333333 0.333333 0.333333 -0.333333 -0.333333 -0.333333 0.333333 0.333333 0.333333 0.333333 -0.333333 0.333333 0.333333 -0.333333 0.333333 0.333333 0.333333 -0.333333 0.333333 -0.333333 0.333333 -0.333333 0.333333 0.333333 0.333333 -0.333333 -0.333333
_member_of_domain_region -0.333333 -0.333333 -0.333333 -0.333333 0.333333 0.333333 -0.333333 -0.333333 -0.333333 0.333333 0.333333 -0.333333 0.333333 -0.333333 -0.333333 0.333333 -0.333333 0.333333 -0.333333 0.333333 0.333333 0.333333 -0.333333 -0.333333 -0.333333 -0.333333 -0.333333 -0.333333 0.333333 -0.333333 -0.333333 0.333333 -0.333333 -0.333333 0.333333 0.333333 0.333333 0.333333 -0.333333 0.333333 -0.333333 0.333333 -0.333333 -0.333333 -0.333333 -0.333333 0.333333 -0.333333 -0.333333 -0.333333 -0.333333 -0.333333 -0.333333 -0.333333 0.333333 -0.333333 -0.333333 0.333333 0.333333 0.333333 -0.333333 -0.333333 0.333333 -0.333333 0.333333 0.333333 -0.333333 0.333333 0.333333 -0.333333 -0.333333 -0.333333 0.333333 -0.333333 0.333333 -0.333333 -0.333333 -0.333333 0.333333 -0.333333 0.333333 0.333333 0.333333 -0.333333 0.333333 -0.333333 0.333333 0.333333 -0.333333 0.333333 0.333333 0.333333 -0.333333 -0.333333 -0.333333 0.333333 -0.333333 -0.333333 -0.333333 0.333333 0.333333 0.333333 0.333333 -0.333333 0.333333 0.333333 -0.333333 0.333333 0.333333 0.333333 0.333333 0.333333 0.333333 -0.333333 -0.333333 0.333333 -0.333333 -0.333333 0.333333 -0.333333 0.333333 -0.333333 -0.333333 0.333333 0.333333 0.333333 0.333333 0.333333 -0.333333 -0.333333 -0.333333 0.333333 -0.333333 0.333333 -0.333333 0.333333 0.333333 0.333333 0.333333 -0.333333 0.333333 -0.333333 -0.333333 0.333333 -0.333333 -0.333333 -0.333333 -0.333333 0.333333 -0.333333 0.333333 0.333333 0.333333 0.333333 -0.333333 0.333333 0.333333 -0.333333 -0.333333 0.333333 -0.333333 -0.333333 -0.333333 -0.333333 0.333333 -0.333333 -0.333333 -0.333333 -0.333333 0.333333 0.333333 0.333333 -0.333333 0.333333 0.333333 0.333333 0.333333 0.333333 -0.333333 0.333333 -0.333333 0.333333 0.333333 0.333333 0.333333 0.333333 0.333333 0.333333 0.333333 0.333333 -0.333333 -0.333333 -0.333333 0.333333 0.333333 0.333333 0.333333 0.333333 -0.333333 0.333333
_synset_domain_usage_of 0.333333 0.333333 -0.333333 0.333333 0.333333 0.333333 -0.333333 -0.333333 -0.333333 -0.333333 -0.333333 0.333333 0.333333 -0.333333 0.333333 0.333333 0.333333 -0.333333 0.333333 -0.333333 0.333333 0.333333 0.333333 -0.333333 0.333333 0.333333 -0.333333 0.333333 0.333333 -0.333333 -0.333333 0.333333 0.333333 0.333333 0.333333 0.333333 0.333333 0.333333 -0.333333 0.333333 -0.333333 0.333333 -0.333333 0.333333 0.333333 0.333333 0.333333 -0.333333 -0.333333 0.333333 -0.333333 -0.333333 -0.333333 -0.333333 -0.333333 -0.333333 -0.333333 0.333333 0.333333 0.333333 -0.333333 -0.333333 -0.333333 -0.333333 0.333333 0.333333 -0.333333 -0.333333 0.333333 0.333333 -0.333333 -0.333333 0.333333 0.333333 -0.333333 -0.333333 0.333333 -0.333333 -0.333333 0.333333 0.333333 0.333333 -0.333333 0.333333 0.333333 -0.333333 0.333333 0.333333 -0.333333 0.333333 0.333333 0.333333 0.333333 0.333333 0.333333 0.333333 -0.333333 -0.333333 -0.333333 0.333333 0.333333 -0.333333 0.333333 -0.333333 -0.333333 0.333333 -0.333333 0.333333 -0.333333 0.333333 0.333333 -0.333333 0.333333 -0.333333 0.333333 0.333333 0.333333 0.333333 0.333333 -0.333333 0.333333 0.333333 0.333333 0.333333 0.333333 0.333333 0.333333 0.333333 0.333333 -0.333333 -0.333333 0.333333 0.333333 -0.333333 0.333333 -0.333333 -0.333333 0.333333 -0.333333 0.333333 0.333333 0.333333 0.333333 0.333333 0.333333 -0.333333 -0.333333 -0.333333 0.333333 -0.333333 0.333333 0.333333 0.333333 0.333333 -0.333333 0.333333 0.333333 0.333333 -0.333333 0.333333 -0.333333 0.333333 -0.333333 0.333333 0.333333 0.333333 0.333333 -0.333333 0.333333 -0.333333 0.333333 0.333333 0.333333 0.333333 0.333333 0.333333 0.333333 -0.333333 -0.333333 -0.333333 -0.333333 0.333333 0.333333 -0.333333 -0.333333 -0.333333 0.333333 -0.333333 0.333333 0.333333 -0.333333 0.333333 -0.333333 0.333333 0.333333 -0.333333 0.333333 0.333333 -0.333333 -0.333333
_synset_domain_region_of -0.333333 -0.333333 0.333333 -0.333333 0.333333 0.333333 0.333333 -0.333333 -0.333333 -0.333333 -0.333333 -0.333333 -0.333333 -0.333333 0.333333 -0.333333 0.333333 0.333333 -0.333333 -0.333333 0.333333 -0.333333 0.333333 -0.333333 0.333333 0.333333 -0.333333 -0.333333 0.333333 -0.333333 -0.333333 -0.333333 -0.333333 0.333333 0.333333 0.333333 0.333333 0.333333 0.333333 0.333333 -0.333333 0.333333 -0.333333 -0.333333 0.333333 -0.333333 0.333333 0.333333 0.333333 0.333333 -0.333333 0.333333 0.333333 0.333333 -0.333333 0.333333 -0.333333 0.333333 0.333333 0.333333 -0.333333 0.333333 -0.333333 0.333333 0.333333 -0.333333 -0.333333 0.333333 0.333333 0.333333 -0.333333 -0.333333 0.333333 -0.333333 0.333333 -0.333333 -0.333333 0.333333 0.333333 0.333333 0.333333 0.333333 -0.333333 0.333333 0.333333 0.333333 0.333333 0.333333 -0.333333 -0.333333 0.333333 -0.333333 -0.333333 -0.333333 0.333333 0.333333 0.333333 -0.333333 -0.333333 0.333333 -0.333333 0.333333 -0.333333 0.333333 0.333333 -0.333333 -0.333333 0.333333 -0.333333 0.333333 0.333333 -0.333333 0.333333 -0.333333 -0.333333 0.333333 -0.333333 -0.333333 -0.333333 -0.333333 0.333333 0.333333 0.333333 -0.333333 0.333333 -0.333333 0.333333 0.333333 0.333333 -0.333333 -0.333333 0.333333 0.333333 -0.333333 -0.333333 0.333333 0.333333 0.333333 -0.333333 -0.333333 0.333333 -0.333333 0.333333 -0.333333 -0.333333 -0.333333 0.333333 -0.333333 0.333333 -0.333333 -0.333333 -0.333333 -0.333333 0.333333 -0.333333 -0.333333 0.333333 0.333333 0.333333 -0.333333 -0.333333 -0.333333 0.333333 0.333333 0.333333 -0.333333 -0.333333 -0.333333 0.333333 0.333333 0.333333 0.333333 -0.333333 0.333333 0.333333 0.333333 0.333333 -0.333333 -0.333333 -0.333333 0.333333 0.333333 0.333333 0.333333 -0.333333 -0.333333 0.333333 -0.333333 0.333333 0.333333 0.333333 0.333333 -0.333333 0.333333 0.333333 -0.333333 0.333333 0.333333 0.333333 0.333333
_verb_group -0.333333 0.333333 -0.333333 0.333333 0.333333 0.333333 -0.333333 -0.333333 -0.333333 0.333333 -0.333333 0.333333 -0.333333 -0.333333 0.333333 0.333333 0.333333 0.333333 -0.333333 -0.333333 0.333333 0.333333 0.333333 -0.333333 0.333333 -0.333333 -0.333333 -0.333333 0.333333 0.333333 -0.333333 -0.333333 -0.333333 -0.333333 0.333333 0.333333 0.333333 0.333333 -0.333333 0.333333 -0.333333 -0.333333 0.333333 0.333333 -0.333333 0.333333 0.333333 0.333333 -0.333333 -0.333333 -0.333333 0.333333 0.333333 0.333333 -0.333333 -0.333333 -0.333333 0.333333 0.333333 0.333333 -0.333333 0.333333 -0.333333 0.333333 0.333333 -0.333333 -0.333333 0.333333 0.333333 0.333333 -0.333333 -0.333333 0.333333 -0.333333 0.333333 -0.333333 -0.333333 -0.333333 -0.333333 0.333333 0.333333 0.333333 0.333333 0.333333 0.333333 -0.333333 -0.333333 0.333333 -0.333333 -0.333333 -0.333333 0.333333 -0.333333 0.333333 -0.333333 0.333333 0.333333 -0.333333 0.333333 -0.333333 0.333333 0.333333 0.333333 -0.333333 -0.333333 0.333333 -0.333333 0.333333 -0.333333 -0.333333 0.333333 -0.333333 -0.333333 -0.333333 0.333333 0.333333 -0.333333 -0.333333 -0.333333 -0.333333 0.333333 0.333333 0.333333 -0.333333 0.333333 0.333333 0.333333 0.333333 0.333333 0.333333 -0.333333 -0.333333 -0.333333 -0.333333 0.333333 0.333333 -0.333333 0.333333 0.333333 0.333333 0.333333 -0.333333 0.333333 0.333333 0.333333 -0.333333 -0.333333 -0.333333 0.333333 0.333333 0.333333 0.333333 -0.333333 0.333333 -0.333333 0.333333 0.333333 -0.333333 0.333333 -0.333333 -0.333333 0.333333 -0.333333 0.333333 0.333333 -0.333333 -0.333333 -0.333333 -0.333333 -0.333333 0.333333 0.333333 -0.333333 0.333333 -0.333333 0.333333 0.333333 -0.333333 -0.333333 0.333333 0.333333 0.333333 0.333333 -0.333333 0.333333 -0.333333 0.333333 -0.333333 0.333333 0.333333 0.333333 0.333333 -0.333333 0.333333 0.333333 0.333333 0.333333 0.333333 0.333333 0.333333
_similar_to 0.333333 0.333333 -0.333333 -0.333333 0.333333 0.333333 -0.333333 -0.333333 -0.333333 0.333333 0.333333 -0.333333 -0.333333 -0.333333 0.333333 -0.333333 -0.333333 0.333333 0.333333 0.333333 0.333333 0.333333 -0.333333 -0.333333 -0.333333 0.333333 -0.333333 0.333333 0.333333 -0.333333 -0.333333 -0.333333 -0.333333 0.333333 0.333333 0.333333 0.333333 0.333333 -0.333333 0.333333 -0.333333 0.333333 -0.333333 0.333333 0.333333 0.333333 0.333333 -0.333333 -0.333333 0.333333 -0.333333 -0.333333 0.333333 -0.333333 -0.333333 0.333333 -0.333333 0.333333 0.333333 0.333333 0.333333 0.333333 0.333333 -0.333333 0.333333 0.333333 -0.333333 0.333333 0.333333 -0.333333 -0.333333 -0.333333 0.333333 -0.333333 -0.333333 -0.333333 0.333333 -0.333333 0.333333 0.333333 0.333333 0.333333 0.333333 -0.333333 0.333333 0.333333 -0.333333 0.333333 -0.333333 0.333333 -0.333333 0.333333 0.333333 -0.333333 0.333333 0.333333 0.333333 -0.333333 -0.333333 -0.333333 -0.333333 0.333333 -0.333333 -0.333333 -0.333333 0.333333 -0.333333 0.333333 0.333333 -0.333333 0.333333 -0.333333 -0.333333 -0.333333 -0.333333 0.333333 0.333333 -0.333333 0.333333 -0.333333 0.333333 0.333333 0.333333 -0.333333 0.333333 0.333333 0.333333 0.333333 -0.333333 -0.333333 -0.333333 -0.333333 0.333333 -0.333333 0.333333 0.333333 -0.333333 0.333333 -0.333333 0.333333 0.333333 -0.333333 0.333333 0.333333 -0.333333 0.333333 -0.333333 -0.333333 0.333333 -0.333333 -0.333333 0.333333 -0.333333 0.333333 -0.333333 0.333333 0.333333 -0.333333 -0.333333 -0.333333 -0.333333 -0.333333 -0.333333 -0.333333 0.333333 -0.333333 0.333333 -0.333333 -0.333333 0.333333 0.333333 0.333333 0.333333 0.333333 0.333333 0.333333 -0.333333 0.333333 -0.333333 0.333333 0.333333 -0.333333 0.333333 0.333333 -0.333333 0.333333 0.333333 0.333333 0.333333 0.333333 -0.333333 -0.333333 -0.333333 0.333333 0.333333 0.333333 0.333333 0.333333 -0.333333 0.333333
**_hyponym -0.333333 0.333333 0.333333 -0.333333 0.333333 0.333333 -0.333333 -0.333333 -0.333333 -0.333333 0.333333 0.333333 0.333333 -0.333333 0.333333 -0.333333 0.333333 -0.333333 0.333333 -0.333333 0.333333 -0.333333 -0.333333 -0.333333 -0.333333 -0.333333 -0.333333 -0.333333 0.333333 0.333333 0.333333 -0.333333 -0.333333 -0.333333 0.333333 0.333333 0.333333 0.333333 -0.333333 0.333333 -0.333333 0.333333 -0.333333 0.333333 0.333333 -0.333333 0.333333 -0.333333 -0.333333 0.333333 -0.333333 0.333333 -0.333333 0.333333 -0.333333 -0.333333 -0.333333 0.333333 0.333333 0.333333 0.333333 -0.333333 0.333333 0.333333 0.333333 0.333333 -0.333333 0.333333 0.333333 0.333333 -0.333333 -0.333333 0.333333 0.333333 -0.333333 -0.333333 -0.333333 -0.333333 0.333333 -0.333333 0.333333 0.333333 0.333333 -0.333333 0.333333 -0.333333 -0.333333 0.333333 0.333333 -0.333333 -0.333333 0.333333 0.333333 0.333333 0.333333 0.333333 0.333333 -0.333333 0.333333 0.333333 -0.333333 -0.333333 0.333333 -0.333333 -0.333333 0.333333 -0.333333 0.333333 -0.333333 -0.333333 0.333333 -0.333333 0.333333 -0.333333 -0.333333 -0.333333 0.333333 0.333333 0.333333 -0.333333 0.333333 0.333333 0.333333 -0.333333 0.333333 -0.333333 0.333333 0.333333 -0.333333 -0.333333 -0.333333 0.333333 0.333333 -0.333333 -0.333333 0.333333 -0.333333 0.333333 0.333333 -0.333333 0.333333 0.333333 -0.333333 -0.333333 -0.333333 -0.333333 0.333333 -0.333333 0.333333 0.333333 0.333333 0.333333 0.333333 0.333333 -0.333333 0.333333 0.333333 -0.333333 -0.333333 -0.333333 -0.333333 0.333333 0.333333 0.333333 0.333333 -0.333333 -0.333333 -0.333333 -0.333333 0.333333 0.333333 -0.333333 -0.333333 0.333333 0.333333 0.333333 0.333333 -0.333333 -0.333333 0.333333 0.333333 0.333333 0.333333 -0.333333 0.333333 0.333333 0.333333 0.333333 0.333333 0.333333 -0.333333 -0.333333 -0.333333 0.333333 0.333333 -0.333333 0.333333 0.333333 -0.333333 -0.333333
**_hypernym 0.333333 0.333333 -0.333333 -0.333333 0.333333 0.333333 -0.333333 -0.333333 -0.333333 0.333333 -0.333333 -0.333333 -0.333333 -0.333333 -0.333333 0.333333 -0.333333 0.333333 -0.333333 0.333333 0.333333 0.333333 0.333333 -0.333333 -0.333333 -0.333333 -0.333333 -0.333333 0.333333 0.333333 0.333333 0.333333 -0.333333 -0.333333 0.333333 0.333333 0.333333 0.333333 -0.333333 0.333333 -0.333333 -0.333333 -0.333333 0.333333 -0.333333 -0.333333 0.333333 0.333333 -0.333333 0.333333 -0.333333 0.333333 -0.333333 -0.333333 -0.333333 0.333333 -0.333333 0.333333 0.333333 0.333333 -0.333333 -0.333333 0.333333 0.333333 0.333333 -0.333333 -0.333333 0.333333 0.333333 -0.333333 -0.333333 -0.333333 0.333333 -0.333333 -0.333333 0.333333 -0.333333 -0.333333 0.333333 0.333333 0.333333 0.333333 -0.333333 0.333333 0.333333 0.333333 0.333333 -0.333333 0.333333 0.333333 0.333333 0.333333 -0.333333 -0.333333 0.333333 0.333333 0.333333 -0.333333 -0.333333 0.333333 0.333333 -0.333333 -0.333333 0.333333 -0.333333 0.333333 -0.333333 0.333333 -0.333333 -0.333333 0.333333 0.333333 0.333333 -0.333333 0.333333 -0.333333 0.333333 -0.333333 -0.333333 -0.333333 0.333333 0.333333 0.333333 -0.333333 0.333333 -0.333333 0.333333 0.333333 0.333333 0.333333 -0.333333 -0.333333 0.333333 -0.333333 -0.333333 0.333333 0.333333 0.333333 -0.333333 0.333333 0.333333 0.333333 0.333333 -0.333333 -0.333333 0.333333 -0.333333 -0.333333 0.333333 0.333333 -0.333333 0.333333 -0.333333 0.333333 -0.333333 0.333333 0.333333 0.333333 -0.333333 -0.333333 -0.333333 -0.333333 0.333333 -0.333333 0.333333 0.333333 0.333333 -0.333333 -0.333333 0.333333 0.333333 -0.333333 -0.333333 0.333333 -0.333333 0.333333 -0.333333 -0.333333 -0.333333 -0.333333 0.333333 -0.333333 0.333333 -0.333333 -0.333333 0.333333 -0.333333 0.333333 0.333333 0.333333 0.333333 0.333333 -0.333333 0.333333 -0.333333 -0.333333 0.333333 0.333333 0.333333 -0.333333
**_member_holonym -0.333333 0.333333 0.333333 -0.333333 0.333333 0.333333 -0.333333 -0.333333 -0.333333 0.333333 0.333333 -0.333333 0.333333 -0.333333 -0.333333 -0.333333 -0.333333 -0.333333 -0.333333 -0.333333 0.333333 0.333333 -0.333333 -0.333333 -0.333333 -0.333333 0.333333 -0.333333 0.333333 -0.333333 -0.333333 0.333333 -0.333333 0.333333 0.333333 0.333333 0.333333 0.333333 0.333333 0.333333 -0.333333 0.333333 -0.333333 -0.333333 -0.333333 -0.333333 0.333333 0.333333 0.333333 -0.333333 -0.333333 -0.333333 -0.333333 -0.333333 -0.333333 -0.333333 -0.333333 0.333333 0.333333 0.333333 -0.333333 -0.333333 0.333333 0.333333 0.333333 0.333333 -0.333333 -0.333333 0.333333 -0.333333 -0.333333 -0.333333 0.333333 -0.333333 0.333333 -0.333333 -0.333333 -0.333333 -0.333333 0.333333 0.333333 0.333333 -0.333333 0.333333 0.333333 0.333333 -0.333333 -0.333333 0.333333 0.333333 -0.333333 0.333333 0.333333 -0.333333 -0.333333 0.333333 0.333333 -0.333333 0.333333 0.333333 0.333333 0.333333 0.333333 0.333333 -0.333333 0.333333 -0.333333 0.333333 0.333333 -0.333333 0.333333 0.333333 -0.333333 -0.333333 0.333333 -0.333333 0.333333 -0.333333 -0.333333 -0.333333 0.333333 0.333333 -0.333333 -0.333333 0.333333 0.333333 0.333333 0.333333 0.333333 -0.333333 -0.333333 0.333333 0.333333 0.333333 0.333333 0.333333 0.333333 0.333333 -0.333333 0.333333 0.333333 0.333333 -0.333333 -0.333333 -0.333333 0.333333 0.333333 -0.333333 0.333333 0.333333 0.333333 0.333333 0.333333 0.333333 -0.333333 0.333333 0.333333 0.333333 -0.333333 -0.333333 -0.333333 -0.333333 -0.333333 0.333333 0.333333 -0.333333 0.333333 -0.333333 0.333333 -0.333333 0.333333 0.333333 0.333333 0.333333 0.333333 0.333333 -0.333333 0.333333 -0.333333 0.333333 0.333333 0.333333 0.333333 0.333333 -0.333333 0.333333 -0.333333 0.333333 0.333333 0.333333 -0.333333 0.333333 -0.333333 0.333333 0.333333 0.333333 -0.333333 0.333333 0.333333 -0.333333
**_derivationally_related_form 0.333333 0.333333 0.333333 0.333333 0.333333 0.333333 -0.333333 -0.333333 -0.333333 0.333333 0.333333 -0.333333 0.333333 -0.333333 -0.333333 -0.333333 0.333333 -0.333333 -0.333333 0.333333 0.333333 0.333333 0.333333 -0.333333 0.333333 0.333333 0.333333 0.333333 0.333333 -0.333333 0.333333 0.333333 0.333333 -0.333333 0.333333 0.333333 0.333333 0.333333 -0.333333 0.333333 -0.333333 0.333333 -0.333333 0.333333 -0.333333 0.333333 0.333333 -0.333333 0.333333 0.333333 -0.333333 -0.333333 0.333333 0.333333 -0.333333 -0.333333 -0.333333 0.333333 0.333333 0.333333 0.333333 -0.333333 0.333333 -0.333333 0.333333 0.333333 -0.333333 0.333333 -0.333333 0.333333 -0.333333 -0.333333 0.333333 0.333333 0.333333 -0.333333 0.333333 -0.333333 0.333333 0.333333 0.333333 0.333333 -0.333333 0.333333 0.333333 0.333333 0.333333 0.333333 -0.333333 -0.333333 0.333333 -0.333333 0.333333 -0.333333 -0.333333 0.333333 0.333333 -0.333333 -0.333333 0.333333 -0.333333 -0.333333 -0.333333 -0.333333 0.333333 0.333333 -0.333333 0.333333 0.333333 -0.333333 0.333333 -0.333333 0.333333 -0.333333 -0.333333 0.333333 0.333333 -0.333333 0.333333 -0.333333 0.333333 0.333333 -0.333333 -0.333333 0.333333 -0.333333 0.333333 0.333333 0.333333 0.333333 -0.333333 0.333333 0.333333 -0.333333 0.333333 0.333333 0.333333 0.333333 -0.333333 0.333333 0.333333 0.333333 0.333333 0.333333 0.333333 0.333333 0.333333 -0.333333 0.333333 0.333333 -0.333333 0.333333 0.333333 0.333333 -0.333333 0.333333 0.333333 0.333333 -0.333333 0.333333 -0.333333 0.333333 0.333333 0.333333 0.333333 0.333333 0.333333 -0.333333 -0.333333 -0.333333 0.333333 0.333333 -0.333333 0.333333 -0.333333 0.333333 0.333333 -0.333333 -0.333333 0.333333 0.333333 0.333333 0.333333 -0.333333 -0.333333 -0.333333 -0.333333 -0.333333 0.333333 0.333333 -0.333333 0.333333 -0.333333 0.333333 0.333333 -0.333333 -0.333333 0.333333 -0.333333 -0.333333
**_instance_hypernym 0.333333 -0.333333 0.333333 -0.333333 0.333333 0.333333 -0.333333 -0.333333 -0.333333 -0.333333 -0.333333 0.333333 0.333333 -0.333333 -0.333333 0.333333 -0.333333 0.333333 -0.333333 0.333333 0.333333 -0.333333 0.333333 -0.333333 -0.333333 0.333333 -0.333333 -0.333333 0.333333 0.333333 -0.333333 0.333333 0.333333 0.333333 0.333333 0.333333 0.333333 0.333333 -0.333333 0.333333 -0.333333 0.333333 -0.333333 0.333333 0.333333 -0.333333 0.333333 -0.333333 -0.333333 -0.333333 -0.333333 0.333333 -0.333333 0.333333 -0.333333 -0.333333 -0.333333 0.333333 0.333333 0.333333 -0.333333 -0.333333 -0.333333 0.333333 0.333333 0.333333 -0.333333 0.333333 0.333333 -0.333333 -0.333333 -0.333333 0.333333 -0.333333 -0.333333 -0.333333 -0.333333 0.333333 0.333333 0.333333 0.333333 0.333333 0.333333 -0.333333 0.333333 0.333333 0.333333 0.333333 0.333333 -0.333333 0.333333 -0.333333 -0.333333 0.333333 -0.333333 0.333333 0.333333 0.333333 0.333333 -0.333333 -0.333333 -0.333333 -0.333333 0.333333 -0.333333 -0.333333 -0.333333 0.333333 -0.333333 -0.333333 0.333333 -0.333333 0.333333 -0.333333 -0.333333 -0.333333 -0.333333 0.333333 0.333333 -0.333333 0.333333 0.333333 0.333333 -0.333333 0.333333 -0.333333 0.333333 0.333333 -0.333333 -0.333333 -0.333333 -0.333333 -0.333333 -0.333333 0.333333 -0.333333 0.333333 0.333333 -0.333333 0.333333 0.333333 -0.333333 -0.333333 -0.333333 0.333333 -0.333333 0.333333 -0.333333 0.333333 -0.333333 0.333333 -0.333333 -0.333333 0.333333 -0.333333 0.333333 0.333333 0.333333 0.333333 0.333333 -0.333333 0.333333 0.333333 0.333333 0.333333 0.333333 -0.333333 -0.333333 0.333333 -0.333333 0.333333 -0.333333 0.333333 0.333333 -0.333333 0.333333 0.333333 -0.333333 -0.333333 -0.333333 -0.333333 0.333333 0.333333 0.333333 0.333333 0.333333 -0.333333 0.333333 0.333333 0.333333 -0.333333 -0.333333 -0.333333 0.333333 0.333333 0.333333 0.333333 0.333333 -0.333333 0.333333
**_also_see -0.333333 -0.333333 -0.333333 0.333333 0.333333 0.333333 -0.333333 -0.333333 -0.333333 0.333333 0.333333 -0.333333 0.333333 -0.333333 0.333333 -0.333333 -0.333333 -0.333333 0.333333 0.333333 0.333333 -0.333333 -0.333333 -0.333333 0.333333 0.333333 0.333333 -0.333333 0.333333 -0.333333 0.333333 0.333333 -0.333333 0.333333 0.333333 0.333333 0.333333 0.333333 -0.333333 0.333333 -0.333333 0.333333 -0.333333 -0.333333 0.333333 -0.333333 0.333333 -0.333333 -0.333333 -0.333333 -0.333333 -0.333333 0.333333 -0.333333 -0.333333 -0.333333 -0.333333 0.333333 0.333333 0.333333 -0.333333 -0.333333 -0.333333 0.333333 0.333333 -0.333333 -0.333333 0.333333 -0.333333 -0.333333 -0.333333 -0.333333 0.333333 0.333333 0.333333 0.333333 -0.333333 -0.333333 -0.333333 0.333333 0.333333 0.333333 0.333333 0.333333 0.333333 -0.333333 -0.333333 0.333333 0.333333 0.333333 0.333333 -0.333333 0.333333 0.333333 0.333333 0.333333 0.333333 -0.333333 0.333333 -0.333333 -0.333333 0.333333 0.333333 0.333333 -0.333333 0.333333 -0.333333 0.333333 0.333333 -0.333333 0.333333 0.333333 0.333333 -0.333333 -0.333333 0.333333 0.333333 0.333333 0.333333 -0.333333 0.333333 0.333333 0.333333 0.333333 0.333333 -0.333333 0.333333 0.333333 -0.333333 0.333333 -0.333333 0.333333 -0.333333 0.333333 -0.333333 0.333333 -0.333333 0.333333 -0.333333 0.333333 0.333333 0.333333 0.333333 -0.333333 -0.333333 -0.333333 -0.333333 -0.333333 0.333333 -0.333333 0.333333 0.333333 0.333333 0.333333 -0.333333 0.333333 0.333333 -0.333333 -0.333333 -0.333333 -0.333333 -0.333333 -0.333333 -0.333333 0.333333 -0.333333 0.333333 -0.333333 0.333333 -0.333333 0.333333 0.333333 -0.333333 0.333333 -0.333333 0.333333 -0.333333 -0.333333 -0.333333 0.333333 0.333333 -0.333333 0.333333 -0.333333 0.333333 0.333333 0.333333 0.333333 0.333333 0.333333 -0.333333 -0.333333 -0.333333 0.333333 -0.333333 -0.333333 -0.333333 0.333333 -0.333333 -0.333333
**_member_meronym -0.333333 0.333333 0.333333 0.333333 0.333333 0.333333 0.333333 -0.333333 -0.333333 -0.333333 0.333333 -0.333333 0.333333 -0.333333 -0.333333 -0.333333 -0.333333 0.333333 0.333333 0.333333 0.333333 0.333333 0.333333 -0.333333 0.333333 0.333333 0.333333 -0.333333 0.333333 -0.333333 0.333333 0.333333 -0.333333 0.333333 0.333333 0.333333 0.333333 0.333333 0.333333 0.333333 -0.333333 0.333333 0.333333 0.333333 0.333333 0.333333 0.333333 -0.333333 -0.333333 0.333333 -0.333333 -0.333333 -0.333333 0.333333 0.333333 0.333333 -0.333333 0.333333 0.333333 0.333333 -0.333333 -0.333333 0.333333 0.333333 0.333333 0.333333 -0.333333 -0.333333 -0.333333 0.333333 -0.333333 -0.333333 0.333333 -0.333333 0.333333 -0.333333 -0.333333 -0.333333 -0.333333 0.333333 0.333333 0.333333 -0.333333 -0.333333 0.333333 0.333333 0.333333 0.333333 -0.333333 -0.333333 0.333333 -0.333333 -0.333333 0.333333 -0.333333 0.333333 0.333333 -0.333333 -0.333333 0.333333 -0.333333 -0.333333 -0.333333 0.333333 -0.333333 0.333333 -0.333333 0.333333 -0.333333 -0.333333 0.333333 0.333333 0.333333 -0.333333 -0.333333 0.333333 0.333333 0.333333 -0.333333 -0.333333 0.333333 -0.333333 0.333333 -0.333333 0.333333 0.333333 0.333333 0.333333 -0.333333 0.333333 -0.333333 0.333333 0.333333 -0.333333 -0.333333 -0.333333 0.333333 0.333333 -0.333333 -0.333333 0.333333 -0.333333 0.333333 0.333333 0.333333 0.333333 0.333333 -0.333333 0.333333 0.333333 -0.333333 0.333333 0.333333 0.333333 -0.333333 0.333333 0.333333 0.333333 -0.333333 0.333333 -0.333333 -0.333333 -0.333333 -0.333333 0.333333 0.333333 0.333333 -0.333333 0.333333 -0.333333 0.333333 0.333333 -0.333333 0.333333 -0.333333 0.333333 -0.333333 0.333333 -0.333333 0.333333 0.333333 -0.333333 0.333333 -0.333333 -0.333333 -0.333333 0.333333 0.333333 0.333333 0.333333 -0.333333 -0.333333 -0.333333 0.333333 -0.333333 0.333333 0.333333 0.333333 0.333333 0.333333
**_member_of_domain_topic -0.333333 0.333333 -0.333333 0.333333 0.333333 0.333333 -0.333333 -0.333333 -0.333333 0.333333 0.333333 -0.333333 -0.333333 -0.333333 0.333333 0.333333 0.333333 0.333333 -0.333333 -0.333333 0.333333 -0.333333 -0.333333 -0.333333 0.333333 -0.333333 -0.333333 0.333333 0.333333 -0.333333 -0.333333 0.333333 -0.333333 -0.333333 0.333333 0.333333 0.333333 0.333333 -0.333333 0.333333 -0.333333 -0.333333 0.333333 0.333333 0.333333 -0.333333 0.333333 -0.333333 0.333333 0.333333 -0.333333 -0.333333 0.333333 0.333333 -0.333333 0.333333 -0.333333 0.333333 0.333333 0.333333 0.333333 -0.333333 0.333333 -0.333333 0.333333 0.333333 -0.333333 0.333333 0.333333 0.333333 -0.333333 -0.333333 0.333333 0.333333 -0.333333 -0.333333 0.333333 -0.333333 -0.333333 0.333333 0.333333 0.333333 -0.333333 -0.333333 0.333333 0.333333 0.333333 -0.333333 -0.333333 -0.333333 -0.333333 0.333333 -0.333333 -0.333333 -0.333333 0.333333 0.333333 -0.333333 -0.333333 -0.333333 -0.333333 -0.333333 -0.333333 -0.333333 0.333333 0.333333 -0.333333 0.333333 -0.333333 -0.333333 0.333333 0.333333 0.333333 -0.333333 0.333333 0.333333 0.333333 0.333333 -0.333333 -0.333333 0.333333 0.333333 -0.333333 -0.333333 0.333333 -0.333333 0.333333 0.333333 -0.333333 -0.333333 -0.333333 -0.333333 -0.333333 -0.333333 0.333333 -0.333333 0.333333 0.333333 0.333333 0.333333 0.333333 -0.333333 0.333333 -0.333333 0.333333 -0.333333 0.333333 -0.333333 0.333333 0.333333 -0.333333 -0.333333 -0.333333 0.333333 -0.333333 0.333333 0.333333 0.333333 -0.333333 0.333333 -0.333333 -0.333333 -0.333333 -0.333333 0.333333 -0.333333 0.333333 -0.333333 0.333333 -0.333333 0.333333 0.333333 -0.333333 0.333333 0.333333 0.333333 0.333333 -0.333333 -0.333333 -0.333333 0.333333 0.333333 0.333333 0.333333 -0.333333 0.333333 0.333333 0.333333 0.333333 0.333333 0.333333 0.333333 -0.333333 0.333333 0.333333 -0.333333 0.333333 0.333333 0.333333 -0.333333
**_part_of -0.333333 0.333333 -0.333333 -0.333333 0.333333 0.333333 -0.333333 -0.333333 -0.333333 0.333333 -0.333333 -0.333333 -0.333333 -0.333333 0.333333 -0.333333 -0.333333 0.333333 -0.333333 0.333333 0.333333 -0.333333 0.333333 -0.333333 -0.333333 -0.333333 -0.333333 0.333333 0.333333 -0.333333 -0.333333 0.333333 0.333333 -0.333333 0.333333 0.333333 0.333333 0.333333 -0.333333 0.333333 -0.333333 0.333333 -0.333333 -0.333333 0.333333 0.333333 0.333333 -0.333333 -0.333333 -0.333333 -0.333333 0.333333 0.333333 -0.333333 0.333333 -0.333333 -0.333333 0.333333 0.333333 0.333333 0.333333 0.333333 -0.333333 0.333333 0.333333 -0.333333 -0.333333 0.333333 -0.333333 -0.333333 -0.333333 -0.333333 0.333333 -0.333333 -0.333333 0.333333 0.333333 -0.333333 -0.333333 -0.333333 0.333333 0.333333 0.333333 -0.333333 0.333333 0.333333 -0.333333 0.333333 -0.333333 -0.333333 0.333333 0.333333 0.333333 -0.333333 -0.333333 0.333333 0.333333 -0.333333 -0.333333 -0.333333 0.333333 -0.333333 0.333333 0.333333 -0.333333 -0.333333 -0.333333 0.333333 0.333333 -0.333333 0.333333 0.333333 0.333333 -0.333333 0.333333 0.333333 -0.333333 -0.333333 -0.333333 -0.333333 0.333333 -0.333333 0.333333 -0.333333 0.333333 -0.333333 0.333333 0.333333 0.333333 -0.333333 -0.333333 -0.333333 0.333333 0.333333 -0.333333 0.333333 -0.333333 0.333333 0.333333 0.333333 0.333333 -0.333333 0.333333 -0.333333 -0.333333 0.333333 0.333333 -0.333333 0.333333 0.333333 0.333333 0.333333 -0.333333 0.333333 -0.333333 0.333333 0.333333 0.333333 -0.333333 -0.333333 -0.333333 0.333333 -0.333333 -0.333333 0.333333 -0.333333 -0.333333 -0.333333 0.333333 -0.333333 0.333333 -0.333333 -0.333333 0.333333 0.333333 0.333333 -0.333333 0.333333 -0.333333 0.333333 -0.333333 0.333333 0.333333 0.333333 0.333333 0.333333 0.333333 0.333333 0.333333 0.333333 -0.333333 -0.333333 -0.333333 0.333333 -0.333333 0.333333 0.333333 0.333333 0.333333 0.333333
**_instance_hyponym -0.333333 -0.333333 -0.333333 -0.333333 0.333333 0.333333 0.333333 -0.333333 -0.333333 0.333333 -0.333333 -0.333333 0.333333 -0.333333 0.333333 0.333333 -0.333333 -0.333333 -0.333333 -0.333333 0.333333 -0.333333 0.333333 -0.333333 -0.333333 0.333333 0.333333 -0.333333 0.333333 -0.333333 0.333333 -0.333333 -0.333333 -0.333333 0.333333 0.333333 0.333333 0.333333 -0.333333 0.333333 -0.333333 0.333333 -0.333333 -0.333333 -0.333333 0.333333 0.333333 0.333333 -0.333333 -0.333333 -0.333333 0.333333 0.333333 -0.333333 -0.333333 -0.333333 -0.333333 0.333333 0.333333 0.333333 0.333333 -0.333333 0.333333 0.333333 0.333333 -0.333333 -0.333333 -0.333333 -0.333333 -0.333333 -0.333333 -0.333333 0.333333 -0.333333 -0.333333 0.333333 0.333333 -0.333333 -0.333333 0.333333 0.333333 0.333333 0.333333 -0.333333 0.333333 0.333333 -0.333333 0.333333 -0.333333 -0.333333 0.333333 0.333333 -0.333333 0.333333 0.333333 0.333333 -0.333333 0.333333 -0.333333 0.333333 0.333333 -0.333333 0.333333 -0.333333 -0.333333 -0.333333 -0.333333 0.333333 0.333333 -0.333333 0.333333 0.333333 0.333333 -0.333333 -0.333333 -0.333333 0.333333 -0.333333 -0.333333 -0.333333 0.333333 0.333333 -0.333333 -0.333333 0.333333 0.333333 0.333333 0.333333 -0.333333 -0.333333 -0.333333 0.333333 -0.333333 -0.333333 0.333333 -0.333333 -0.333333 0.333333 -0.333333 0.333333 0.333333 -0.333333 -0.333333 -0.333333 0.333333 0.333333 -0.333333 -0.333333 0.333333 0.333333 0.333333 0.333333 -0.333333 0.333333 -0.333333 -0.333333 0.333333 0.333333 0.333333 -0.333333 -0.333333 0.333333 -0.333333 -0.333333 0.333333 0.333333 -0.333333 -0.333333 -0.333333 -0.333333 0.333333 0.333333 -0.333333 0.333333 -0.333333 0.333333 -0.333333 -0.333333 -0.333333 -0.333333 0.333333 -0.333333 0.333333 -0.333333 0.333333 -0.333333 -0.333333 0.333333 0.333333 0.333333 0.333333 -0.333333 -0.333333 0.333333 0.333333 -0.333333 0.333333 0.333333 -0.333333 0.333333
**_synset_domain_topic_of -0.333333 -0.333333 0.333333 -0.333333 0.333333 0.333333 -0.333333 -0.333333 -0.333333 -0.333333 0.333333 0.333333 -0.333333 -0.333333 0.333333 -0.333333 -0.333333 0.333333 0.333333 0.333333 0.333333 0.333333 -0.333333 -0.333333 -0.333333 0.333333 0.333333 -0.333333 0.333333 -0.333333 0.333333 -0.333333 0.333333 -0.333333 0.333333 0.333333 0.333333 0.333333 -0.333333 0.333333 -0.333333 0.333333 -0.333333 0.333333 -0.333333 -0.333333 0.333333 0.333333 -0.333333 0.333333 -0.333333 -0.333333 0.333333 0.333333 -0.333333 0.333333 -0.333333 0.333333 0.333333 0.333333 -0.333333 -0.333333 -0.333333 0.333333 0.333333 0.333333 -0.333333 -0.333333 -0.333333 -0.333333 -0.333333 -0.333333 0.333333 -0.333333 -0.333333 0.333333 0.333333 -0.333333 0.333333 0.333333 0.333333 0.333333 0.333333 0.333333 0.333333 0.333333 -0.333333 -0.333333 -0.333333 0.333333 -0.333333 -0.333333 -0.333333 0.333333 -0.333333 0.333333 0.333333 -0.333333 0.333333 -0.333333 -0.333333 -0.333333 -0.333333 -0.333333 -0.333333 0.333333 -0.333333 0.333333 0.333333 -0.333333 0.333333 0.333333 0.333333 -0.333333 0.333333 0.333333 0.333333 0.333333 0.333333 -0.333333 0.333333 0.333333 -0.333333 0.333333 0.333333 0.333333 0.333333 0.333333 0.333333 -0.333333 -0.333333 0.333333 0.333333 -0.333333 -0.333333 0.333333 0.333333 0.333333 -0.333333 -0.333333 0.333333 0.333333 -0.333333 0.333333 0.333333 -0.333333 0.333333 -0.333333 0.333333 -0.333333 0.333333 0.333333 -0.333333 0.333333 -0.333333 -0.333333 0.333333 0.333333 -0.333333 0.333333 -0.333333 -0.333333 -0.333333 -0.333333 0.333333 0.333333 -0.333333 -0.333333 -0.333333 -0.333333 0.333333 0.333333 -0.333333 0.333333 0.333333 0.333333 0.333333 -0.333333 -0.333333 0.333333 0.333333 0.333333 0.333333 -0.333333 -0.333333 0.333333 0.333333 -0.333333 0.333333 0.333333 -0.333333 0.333333 -0.333333 0.333333 0.333333 -0.333333 0.333333 0.333333 0.333333 -0.333333
**_has_part -0.333333 0.333333 0.333333 0.333333 0.333333 0.333333 0.333333 -0.333333 -0.333333 -0.333333 0.333333 0.333333 0.333333 -0.333333 0.333333 0.333333 -0.333333 -0.333333 -0.333333 -0.333333 0.333333 -0.333333 -0.333333 -0.333333 0.333333 0.333333 0.333333 -0.333333 0.333333 -0.333333 0.333333 0.333333 -0.333333 0.333333 0.333333 0.333333 0.333333 0.333333 -0.333333 0.333333 -0.333333 -0.333333 -0.333333 -0.333333 -0.333333 0.333333 0.333333 0.333333 -0.333333 -0.333333 -0.333333 0.333333 -0.333333 0.333333 -0.333333 -0.333333 -0.333333 0.333333 0.333333 0.333333 0.333333 -0.333333 -0.333333 0.333333 0.333333 -0.333333 -0.333333 -0.333333 -0.333333 -0.333333 -0.333333 -0.333333 0.333333 -0.333333 -0.333333 0.333333 -0.333333 -0.333333 0.333333 0.333333 0.333333 0.333333 0.333333 -0.333333 0.333333 0.333333 0.333333 0.333333 0.333333 -0.333333 -0.333333 0.333333 -0.333333 0.333333 -0.333333 0.333333 0.333333 -0.333333 0.333333 0.333333 -0.333333 0.333333 -0.333333 -0.333333 0.333333 -0.333333 -0.333333 0.333333 0.333333 0.333333 0.333333 -0.333333 -0.333333 -0.333333 0.333333 -0.333333 -0.333333 0.333333 0.333333 -0.333333 0.333333 0.333333 0.333333 -0.333333 0.333333 -0.333333 0.333333 0.333333 0.333333 0.333333 -0.333333 0.333333 0.333333 0.333333 -0.333333 -0.333333 -0.333333 0.333333 0.333333 0.333333 0.333333 0.333333 -0.333333 0.333333 -0.333333 0.333333 0.333333 -0.333333 0.333333 -0.333333 -0.333333 0.333333 -0.333333 0.333333 -0.333333 -0.333333 0.333333 0.333333 0.333333 0.333333 -0.333333 0.333333 -0.333333 0.333333 0.333333 -0.333333 0.333333 -0.333333 -0.333333 0.333333 0.333333 0.333333 -0.333333 0.333333 0.333333 0.333333 -0.333333 0.333333 -0.333333 -0.333333 0.333333 -0.333333 0.333333 0.333333 0.333333 -0.333333 0.333333 0.333333 0.333333 0.333333 -0.333333 0.333333 -0.333333 0.333333 0.333333 -0.333333 0.333333 0.333333 -0.333333 -0.333333
**_member_of_domain_usage 0.333333 0.333333 -0.333333 0.333333 0.333333 0.333333 -0.333333 -0.333333 -0.333333 -0.333333 -0.333333 0.333333 0.333333 -0.333333 0.333333 0.333333 0.333333 -0.333333 0.333333 -0.333333 0.333333 0.333333 0.333333 -0.333333 0.333333 0.333333 -0.333333 0.333333 0.333333 -0.333333 -0.333333 0.333333 0.333333 0.333333 0.333333 0.333333 0.333333 0.333333 -0.333333 0.333333 -0.333333 0.333333 -0.333333 0.333333 0.333333 0.333333 0.333333 -0.333333 -0.333333 0.333333 -0.333333 -0.333333 -0.333333 -0.333333 -0.333333 -0.333333 -0.333333 0.333333 0.333333 0.333333 -0.333333 -0.333333 -0.333333 -0.333333 0.333333 0.333333 -0.333333 -0.333333 0.333333 0.333333 -0.333333 -0.333333 0.333333 0.333333 -0.333333 -0.333333 0.333333 -0.333333 -0.333333 0.333333 0.333333 0.333333 -0.333333 0.333333 0.333333 -0.333333 0.333333 0.333333 -0.333333 0.333333 0.333333 0.333333 0.333333 0.333333 0.333333 0.333333 -0.333333 -0.333333 -0.333333 0.333333 0.333333 -0.333333 0.333333 -0.333333 -0.333333 0.333333 -0.333333 0.333333 -0.333333 0.333333 0.333333 -0.333333 0.333333 -0.333333 0.333333 0.333333 0.333333 0.333333 0.333333 -0.333333 0.333333 0.333333 0.333333 0.333333 0.333333 0.333333 0.333333 0.333333 0.333333 -0.333333 -0.333333 0.333333 0.333333 -0.333333 0.333333 -0.333333 -0.333333 0.333333 -0.333333 0.333333 0.333333 0.333333 0.333333 0.333333 0.333333 -0.333333 -0.333333 -0.333333 0.333333 -0.333333 0.333333 0.333333 0.333333 0.333333 -0.333333 0.333333 0.333333 0.333333 -0.333333 0.333333 -0.333333 0.333333 -0.333333 0.333333 0.333333 0.333333 0.333333 -0.333333 0.333333 -0.333333 0.333333 0.333333 0.333333 0.333333 0.333333 0.333333 0.333333 -0.333333 -0.333333 -0.333333 -0.333333 0.333333 0.333333 -0.333333 -0.333333 -0.333333 0.333333 -0.333333 0.333333 0.333333 -0.333333 0.333333 -0.333333 0.333333 0.333333 -0.333333 0.333333 0.333333 -0.333333 -0.333333
**_member_of_domain_region -0.333333 -0.333333 0.333333 -0.333333 0.333333 0.333333 0.333333 -0.333333 -0.333333 -0.333333 -0.333333 -0.333333 -0.333333 -0.333333 0.333333 -0.333333 0.333333 0.333333 -0.333333 -0.333333 0.333333 -0.333333 0.333333 -0.333333 0.333333 0.333333 -0.333333 -0.333333 0.333333 -0.333333 -0.333333 -0.333333 -0.333333 0.333333 0.333333 0.333333 0.333333 0.333333 0.333333 0.333333 -0.333333 0.333333 -0.333333 -0.333333 0.333333 -0.333333 0.333333 0.333333 0.333333 0.333333 -0.333333 0.333333 0.333333 0.333333 -0.333333 0.333333 -0.333333 0.333333 0.333333 0.333333 -0.333333 0.333333 -0.333333 0.333333 0.333333 -0.333333 -0.333333 0.333333 0.333333 0.333333 -0.333333 -0.333333 0.333333 -0.333333 0.333333 -0.333333 -0.333333 0.333333 0.333333 0.333333 0.333333 0.333333 -0.333333 0.333333 0.333333 0.333333 0.333333 0.333333 -0.333333 -0.333333 0.333333 -0.333333 -0.333333 -0.333333 0.333333 0.333333 0.333333 -0.333333 -0.333333 0.333333 -0.333333 0.333333 -0.333333 0.333333 0.333333 -0.333333 -0.333333 0.333333 -0.333333 0.333333 0.333333 -0.333333 0.333333 -0.333333 -0.333333 0.333333 -0.333333 -0.333333 -0.333333 -0.333333 0.333333 0.333333 0.333333 -0.333333 0.333333 -0.333333 0.333333 0.333333 0.333333 -0.333333 -0.333333 0.333333 0.333333 -0.333333 -0.333333 0.333333 0.333333 0.333333 -0.333333 -0.333333 0.333333 -0.333333 0.333333 -0.333333 -0.333333 -0.333333 0.333333 -0.333333 0.333333 -0.333333 -0.333333 -0.333333 -0.333333 0.333333 -0.333333 -0.333333 0.333333 0.333333 0.333333 -0.333333 -0.333333 -0.333333 0.333333 0.333333 0.333333 -0.333333 -0.333333 -0.333333 0.333333 0.333333 0.333333 0.333333 -0.333333 0.333333 0.333333 0.333333 0.333333 -0.333333 -0.333333 -0.333333 0.333333 0.333333 0.333333 0.333333 -0.333333 -0.333333 0.333333 -0.333333 0.333333 0.333333 0.333333 0.333333 -0.333333 0.333333 0.333333 -0.333333 0.333333 0.333333 0.333333 0.333333
**_synset_domain_usage_of -0.333333 -0.333333 -0.333333 -0.333333 0.333333 0.333333 -0.333333 -0.333333 -0.333333 0.333333 -0.333333 -0.333333 0.333333 -0.333333 0.333333 0.333333 -0.333333 -0.333333 0.333333 -0.333333 0.333333 0.333333 0.333333 -0.333333 0.333333 -0.333333 0.333333 0.333333 0.333333 0.333333 -0.333333 0.333333 -0.333333 -0.333333 0.333333 0.333333 -0.333333 0.333333 -0.333333 0.333333 -0.333333 0.333333 -0.333333 -0.333333 0.333333 -0.333333 0.333333 -0.333333 -0.333333 -0.333333 -0.333333 0.333333 0.333333 0.333333 0.333333 -0.333333 -0.333333 0.333333 0.333333 0.333333 0.333333 0.333333 -0.333333 -0.333333 0.333333 0.333333 -0.333333 -0.333333 -0.333333 0.333333 -0.333333 -0.333333 0.333333 -0.333333 0.333333 -0.333333 0.333333 -0.333333 0.333333 0.333333 0.333333 0.333333 -0.333333 -0.333333 0.333333 -0.333333 0.333333 -0.333333 -0.333333 -0.333333 -0.333333 0.333333 0.333333 0.333333 0.333333 0.333333 0.333333 -0.333333 -0.333333 0.333333 -0.333333 -0.333333 0.333333 0.333333 -0.333333 0.333333 -0.333333 0.333333 -0.333333 -0.333333 0.333333 0.333333 0.333333 -0.333333 -0.333333 0.333333 0.333333 0.333333 -0.333333 -0.333333 0.333333 0.333333 -0.333333 -0.333333 0.333333 0.333333 0.333333 0.333333 0.333333 0.333333 -0.333333 -0.333333 0.333333 0.333333 -0.333333 0.333333 0.333333 0.333333 0.333333 0.333333 0.333333 0.333333 0.333333 0.333333 -0.333333 -0.333333 0.333333 -0.333333 -0.333333 0.333333 -0.333333 0.333333 -0.333333 0.333333 -0.333333 -0.333333 0.333333 -0.333333 -0.333333 0.333333 -0.333333 0.333333 -0.333333 -0.333333 0.333333 -0.333333 0.333333 -0.333333 -0.333333 -0.333333 0.333333 -0.333333 0.333333 0.333333 0.333333 0.333333 -0.333333 -0.333333 -0.333333 0.333333 0.333333 0.333333 0.333333 -0.333333 0.333333 0.333333 -0.333333 0.333333 0.333333 0.333333 -0.333333 0.333333 -0.333333 0.333333 -0.333333 0.333333 0.333333 0.333333 -0.333333 -0.333333
**_synset_domain_region_of -0.333333 -0.333333 -0.333333 -0.333333 0.333333 0.333333 -0.333333 -0.333333 -0.333333 0.333333 0.333333 -0.333333 0.333333 -0.333333 -0.333333 0.333333 -0.333333 0.333333 -0.333333 0.333333 0.333333 0.333333 -0.333333 -0.333333 -0.333333 -0.333333 -0.333333 -0.333333 0.333333 -0.333333 -0.333333 0.333333 -0.333333 -0.333333 0.333333 0.333333 0.333333 0.333333 -0.333333 0.333333 -0.333333 0.333333 -0.333333 -0.333333 -0.333333 -0.333333 0.333333 -0.333333 -0.333333 -0.333333 -0.333333 -0.333333 -0.333333 -0.333333 0.333333 -0.333333 -0.333333 0.333333 0.333333 0.333333 -0.333333 -0.333333 0.333333 -0.333333 0.333333 0.333333 -0.333333 0.333333 0.333333 -0.333333 -0.333333 -0.333333 0.333333 -0.333333 0.333333 -0.333333 -0.333333 -0.333333 0.333333 -0.333333 0.333333 0.333333 0.333333 -0.333333 0.333333 -0.333333 0.333333 0.333333 -0.333333 0.333333 0.333333 0.333333 -0.333333 -0.333333 -0.333333 0.333333 -0.333333 -0.333333 -0.333333 0.333333 0.333333 0.333333 0.333333 -0.333333 0.333333 0.333333 -0.333333 0.333333 0.333333 0.333333 0.333333 0.333333 0.333333 -0.333333 -0.333333 0.333333 -0.333333 -0.333333 0.333333 -0.333333 0.333333 -0.333333 -0.333333 0.333333 0.333333 0.333333 0.333333 0.333333 -0.333333 -0.333333 -0.333333 0.333333 -0.333333 0.333333 -0.333333 0.333333 0.333333 0.333333 0.333333 -0.333333 0.333333 -0.333333 -0.333333 0.333333 -0.333333 -0.333333 -0.333333 -0.333333 0.333333 -0.333333 0.333333 0.333333 0.333333 0.333333 -0.333333 0.333333 0.333333 -0.333333 -0.333333 0.333333 -0.333333 -0.333333 -0.333333 -0.333333 0.333333 -0.333333 -0.333333 -0.333333 -0.333333 0.333333 0.333333 0.333333 -0.333333 0.333333 0.333333 0.333333 0.333333 0.333333 -0.333333 0.333333 -0.333333 0.333333 0.333333 0.333333 0.333333 0.333333 0.333333 0.333333 0.333333 0.333333 -0.333333 -0.333333 -0.333333 0.333333 0.333333 0.333333 0.333333 0.333333 -0.333333 0.333333
**_verb_group -0.333333 0.333333 -0.333333 0.333333 0.333333 0.333333 -0.333333 -0.333333 -0.333333 0.333333 -0.333333 0.333333 -0.333333 -0.333333 0.333333 0.333333 0.333333 0.333333 -0.333333 -0.333333 0.333333 0.333333 0.333333 -0.333333 0.333333 -0.333333 -0.333333 -0.333333 0.333333 0.333333 -0.333333 -0.333333 -0.333333 -0.333333 0.333333 0.333333 0.333333 0.333333 -0.333333 0.333333 -0.333333 -0.333333 0.333333 0.333333 -0.333333 0.333333 0.333333 0.333333 -0.333333 -0.333333 -0.333333 0.333333 0.333333 0.333333 -0.333333 -0.333333 -0.333333 0.333333 0.333333 0.333333 -0.333333 0.333333 -0.333333 0.333333 0.333333 -0.333333 -0.333333 0.333333 0.333333 0.333333 -0.333333 -0.333333 0.333333 -0.333333 0.333333 -0.333333 -0.333333 -0.333333 -0.333333 0.333333 0.333333 0.333333 0.333333 0.333333 0.333333 -0.333333 -0.333333 0.333333 -0.333333 -0.333333 -0.333333 0.333333 -0.333333 0.333333 -0.333333 0.333333 0.333333 -0.333333 0.333333 -0.333333 0.333333 0.333333 0.333333 -0.333333 -0.333333 0.333333 -0.333333 0.333333 -0.333333 -0.333333 0.333333 -0.333333 -0.333333 -0.333333 0.333333 0.333333 -0.333333 -0.333333 -0.333333 -0.333333 0.333333 0.333333 0.333333 -0.333333 0.333333 0.333333 0.333333 0.333333 0.333333 0.333333 -0.333333 -0.333333 -0.333333 -0.333333 0.333333 0.333333 -0.333333 0.333333 0.333333 0.333333 0.333333 -0.333333 0.333333 0.333333 0.333333 -0.333333 -0.333333 -0.333333 0.333333 0.333333 0.333333 0.333333 -0.333333 0.333333 -0.333333 0.333333 0.333333 -0.333333 0.333333 -0.333333 -0.333333 0.333333 -0.333333 0.333333 0.333333 -0.333333 -0.333333 -0.333333 -0.333333 -0.333333 0.333333 0.333333 -0.333333 0.333333 -0.333333 0.333333 0.333333 -0.333333 -0.333333 0.333333 0.333333 0.333333 0.333333 -0.333333 0.333333 -0.333333 0.333333 -0.333333 0.333333 0.333333 0.333333 0.333333 -0.333333 0.333333 0.333333 0.333333 0.333333 0.333333 0.333333 0.333333
**_similar_to 0.333333 0.333333 -0.333333 -0.333333 0.333333 0.333333 -0.333333 -0.333333 -0.333333 0.333333 0.333333 -0.333333 -0.333333 -0.333333 0.333333 -0.333333 -0.333333 0.333333 0.333333 0.333333 0.333333 0.333333 -0.333333 -0.333333 -0.333333 0.333333 -0.333333 0.333333 0.333333 -0.333333 -0.333333 -0.333333 -0.333333 0.333333 0.333333 0.333333 0.333333 0.333333 -0.333333 0.333333 -0.333333 0.333333 -0.333333 0.333333 0.333333 0.333333 0.333333 -0.333333 -0.333333 0.333333 -0.333333 -0.333333 0.333333 -0.333333 -0.333333 0.333333 -0.333333 0.333333 0.333333 0.333333 0.333333 0.333333 0.333333 -0.333333 0.333333 0.333333 -0.333333 0.333333 0.333333 -0.333333 -0.333333 -0.333333 0.333333 -0.333333 -0.333333 -0.333333 0.333333 -0.333333 0.333333 0.333333 0.333333 0.333333 0.333333 -0.333333 0.333333 0.333333 -0.333333 0.333333 -0.333333 0.333333 -0.333333 0.333333 0.333333 -0.333333 0.333333 0.333333 0.333333 -0.333333 -0.333333 -0.333333 -0.333333 0.333333 -0.333333 -0.333333 -0.333333 0.333333 -0.333333 0.333333 0.333333 -0.333333 0.333333 -0.333333 -0.333333 -0.333333 -0.333333 0.333333 0.333333 -0.333333 0.333333 -0.333333 0.333333 0.333333 0.333333 -0.333333 0.333333 0.333333 0.333333 0.333333 -0.333333 -0.333333 -0.333333 -0.333333 0.333333 -0.333333 0.333333 0.333333 -0.333333 0.333333 -0.333333 0.333333 0.333333 -0.333333 0.333333 0.333333 -0.333333 0.333333 -0.333333 -0.333333 0.333333 -0.333333 -0.333333 0.333333 -0.333333 0.333333 -0.333333 0.333333 0.333333 -0.333333 -0.333333 -0.333333 -0.333333 -0.333333 -0.333333 -0.333333 0.333333 -0.333333 0.333333 -0.333333 -0.333333 0.333333 0.333333 0.333333 0.333333 0.333333 0.333333 0.333333 -0.333333 0.333333 -0.333333 0.333333 0.333333 -0.333333 0.333333 0.333333 -0.333333 0.333333 0.333333 0.333333 0.333333 0.333333 -0.333333 -0.333333 -0.333333 0.333333 0.333333 0.333333 0.333333 0.333333 -0.333333 0.333333
